<?xml version="1.0"?>
<opencv_storage>
<output type_id="opencv-haar-classifier">
  <size>
    24 24</size>
  <stages>
    <_>
      <trees>
        <_>
          <_>
            <feature>
              <rects>
                <_>
                  0 0 18 16 -1.</_>
                <_>
                  0 0 9 8 2.</_>
                <_>
                  9 8 9 8 2.</_></rects>
              <tilted>0</tilted></feature>
            <threshold>0.0615804903209209</threshold>
            <left_val>-1.</left_val>
            <right_val>1.</right_val></_></_></trees>
      <stage_threshold>1.</stage_threshold>
      <parent>-1</parent>
      <next>-1</next></_>
    <_>
      <trees>
        <_>
          <_>
            <feature>
              <rects>
                <_>
                  0 14 12 4 -1.</_>
                <_>
                  0 14 6 2 2.</_>
                <_>
                  6 16 6 2 2.</_></rects>
              <tilted>0</tilted></feature>
            <threshold>1.3791499659419060e-003</threshold>
            <left_val>-1.</left_val>
            <right_val>1.</right_val></_></_></trees>
      <stage_threshold>1.</stage_threshold>
      <parent>0</parent>
      <next>-1</next></_>
    <_>
      <trees>
        <_>
          <_>
            <feature>
              <rects>
                <_>
                  3 9 20 4 -1.</_>
                <_>
                  3 9 10 2 2.</_>
                <_>
                  13 11 10 2 2.</_></rects>
              <tilted>0</tilted></feature>
            <threshold>7.7544418163597584e-003</threshold>
            <left_val>-1.</left_val>
            <right_val>1.</right_val></_></_></trees>
      <stage_threshold>1.</stage_threshold>
      <parent>1</parent>
      <next>-1</next></_>
    <_>
      <trees>
        <_>
          <_>
            <feature>
              <rects>
                <_>
                  0 1 3 1 -1.</_>
                <_>
                  1 1 1 1 3.</_></rects>
              <tilted>0</tilted></feature>
            <threshold>-1.4981000276748091e-004</threshold>
            <left_val>-1.</left_val>
            <right_val>1.</right_val></_></_></trees>
      <stage_threshold>1.</stage_threshold>
      <parent>2</parent>
      <next>-1</next></_>
    <_>
      <trees>
        <_>
          <_>
            <feature>
              <rects>
                <_>
                  1 1 3 1 -1.</_>
                <_>
                  2 1 1 1 3.</_></rects>
              <tilted>0</tilted></feature>
            <threshold>1.8073640603688546e-005</threshold>
            <left_val>-1.</left_val>
            <right_val>1.</right_val></_></_></trees>
      <stage_threshold>1.</stage_threshold>
      <parent>3</parent>
      <next>-1</next></_>
    <_>
      <trees>
        <_>
          <_>
            <feature>
              <rects>
                <_>
                  5 0 3 12 -1.</_>
                <_>
                  5 4 3 4 3.</_></rects>
              <tilted>0</tilted></feature>
            <threshold>3.1705358996987343e-003</threshold>
            <left_val>1.</left_val>
            <right_val>-1.</right_val></_></_></trees>
      <stage_threshold>1.</stage_threshold>
      <parent>4</parent>
      <next>-1</next></_>
    <_>
      <trees>
        <_>
          <_>
            <feature>
              <rects>
                <_>
                  2 12 6 3 -1.</_>
                <_>
                  4 13 2 1 9.</_></rects>
              <tilted>0</tilted></feature>
            <threshold>1.3102509547024965e-004</threshold>
            <left_val>-1.</left_val>
            <right_val>1.</right_val></_></_></trees>
      <stage_threshold>1.</stage_threshold>
      <parent>5</parent>
      <next>-1</next></_>
    <_>
      <trees>
        <_>
          <_>
            <feature>
              <rects>
                <_>
                  0 0 18 21 -1.</_>
                <_>
                  6 7 6 7 9.</_></rects>
              <tilted>0</tilted></feature>
            <threshold>-0.0921553373336792</threshold>
            <left_val>-1.</left_val>
            <right_val>1.</right_val></_></_></trees>
      <stage_threshold>1.</stage_threshold>
      <parent>6</parent>
      <next>-1</next></_>
    <_>
      <trees>
        <_>
          <_>
            <feature>
              <rects>
                <_>
                  0 3 8 10 -1.</_>
                <_>
                  0 3 4 5 2.</_>
                <_>
                  4 8 4 5 2.</_></rects>
              <tilted>0</tilted></feature>
            <threshold>4.6685538254678249e-003</threshold>
            <left_val>-1.</left_val>
            <right_val>1.</right_val></_></_></trees>
      <stage_threshold>1.</stage_threshold>
      <parent>7</parent>
      <next>-1</next></_>
    <_>
      <trees>
        <_>
          <_>
            <feature>
              <rects>
                <_>
                  10 8 1 15 -1.</_>
                <_>
                  10 13 1 5 3.</_></rects>
              <tilted>0</tilted></feature>
            <threshold>6.8795499391853809e-003</threshold>
            <left_val>-1.</left_val>
            <right_val>1.</right_val></_></_></trees>
      <stage_threshold>1.</stage_threshold>
      <parent>8</parent>
      <next>-1</next></_>
    <_>
      <trees>
        <_>
          <_>
            <feature>
              <rects>
                <_>
                  10 0 8 12 -1.</_>
                <_>
                  10 4 8 4 3.</_></rects>
              <tilted>0</tilted></feature>
            <threshold>-0.0344124585390091</threshold>
            <left_val>-1.</left_val>
            <right_val>1.</right_val></_></_></trees>
      <stage_threshold>1.</stage_threshold>
      <parent>9</parent>
      <next>-1</next></_>
    <_>
      <trees>
        <_>
          <_>
            <feature>
              <rects>
                <_>
                  0 2 18 6 -1.</_>
                <_>
                  0 2 9 3 2.</_>
                <_>
                  9 5 9 3 2.</_></rects>
              <tilted>0</tilted></feature>
            <threshold>0.0136004304513335</threshold>
            <left_val>-1.</left_val>
            <right_val>1.</right_val></_></_></trees>
      <stage_threshold>1.</stage_threshold>
      <parent>10</parent>
      <next>-1</next></_>
    <_>
      <trees>
        <_>
          <_>
            <feature>
              <rects>
                <_>
                  4 5 9 9 -1.</_>
                <_>
                  7 8 3 3 9.</_></rects>
              <tilted>0</tilted></feature>
            <threshold>0.0184467993676662</threshold>
            <left_val>-1.</left_val>
            <right_val>1.</right_val></_></_></trees>
      <stage_threshold>1.</stage_threshold>
      <parent>11</parent>
      <next>-1</next></_>
    <_>
      <trees>
        <_>
          <_>
            <feature>
              <rects>
                <_>
                  0 0 1 21 -1.</_>
                <_>
                  0 7 1 7 3.</_></rects>
              <tilted>0</tilted></feature>
            <threshold>-8.7981373071670532e-003</threshold>
            <left_val>-1.</left_val>
            <right_val>1.</right_val></_></_></trees>
      <stage_threshold>1.</stage_threshold>
      <parent>12</parent>
      <next>-1</next></_>
    <_>
      <trees>
        <_>
          <_>
            <feature>
              <rects>
                <_>
                  11 3 9 10 -1.</_>
                <_>
                  11 8 9 5 2.</_></rects>
              <tilted>0</tilted></feature>
            <threshold>0.0581237189471722</threshold>
            <left_val>-1.</left_val>
            <right_val>1.</right_val></_></_></trees>
      <stage_threshold>1.</stage_threshold>
      <parent>13</parent>
      <next>-1</next></_>
    <_>
      <trees>
        <_>
          <_>
            <feature>
              <rects>
                <_>
                  0 0 8 2 -1.</_>
                <_>
                  0 0 4 1 2.</_>
                <_>
                  4 1 4 1 2.</_></rects>
              <tilted>0</tilted></feature>
            <threshold>6.6177308326587081e-004</threshold>
            <left_val>1.</left_val>
            <right_val>-1.</right_val></_></_></trees>
      <stage_threshold>1.</stage_threshold>
      <parent>14</parent>
      <next>-1</next></_>
    <_>
      <trees>
        <_>
          <_>
            <feature>
              <rects>
                <_>
                  2 10 9 6 -1.</_>
                <_>
                  5 12 3 2 9.</_></rects>
              <tilted>0</tilted></feature>
            <threshold>-8.4791537374258041e-003</threshold>
            <left_val>-1.</left_val>
            <right_val>1.</right_val></_></_></trees>
      <stage_threshold>1.</stage_threshold>
      <parent>15</parent>
      <next>-1</next></_>
    <_>
      <trees>
        <_>
          <_>
            <feature>
              <rects>
                <_>
                  0 0 1 20 -1.</_>
                <_>
                  0 10 1 10 2.</_></rects>
              <tilted>0</tilted></feature>
            <threshold>-0.0208442602306604</threshold>
            <left_val>-1.</left_val>
            <right_val>1.</right_val></_></_></trees>
      <stage_threshold>1.</stage_threshold>
      <parent>16</parent>
      <next>-1</next></_>
    <_>
      <trees>
        <_>
          <_>
            <feature>
              <rects>
                <_>
                  0 0 4 2 -1.</_>
                <_>
                  0 0 2 1 2.</_>
                <_>
                  2 1 2 1 2.</_></rects>
              <tilted>0</tilted></feature>
            <threshold>-2.8949140687473118e-004</threshold>
            <left_val>-1.</left_val>
            <right_val>1.</right_val></_></_></trees>
      <stage_threshold>1.</stage_threshold>
      <parent>17</parent>
      <next>-1</next></_></stages></output>
</opencv_storage>
